[ 9.5000000e-01  9.3000000e-01  1.6000000e-01  9.8000000e-01
  4.8000000e-01  5.3000000e-01  8.4000000e-01  7.4000000e-01
 -7.6700000e-01 -7.6000000e-01 -9.4000000e-01  5.5000000e-01
  5.2200000e-01  3.7000000e-01  8.1000000e-01  5.4000000e-01
 -5.4700000e-01 -1.0000000e-02 -4.5000000e-01  3.9000000e-01
  8.2000000e-01 -8.0000000e-01  2.6000000e-01 -1.7000000e-01
  8.4000000e-01  3.0000000e-01 -5.4000000e-01 -7.9000000e-01
 -9.1000000e-01 -3.9000000e-01  8.8817842e-16 -7.1000000e-01
  4.0000000e-01 -6.0000000e-02  2.8300000e-01 -8.6000000e-01
 -2.3000000e-01 -6.6000000e-01 -4.6000000e-01  9.2000000e-01
  5.8500000e-01 -9.9000000e-01 -3.7000000e-01 -3.8000000e-01
  6.0000000e-01 -2.8000000e-01 -6.0000000e-02  5.0000000e-02
  2.2000000e-01 -1.8000000e-01  4.4000000e-01 -3.1000000e-01
  5.6000000e-01 -3.0600000e-01 -6.3600000e-01  1.3860000e+00
 -6.9000000e-01 -7.5800000e-01 -3.5000000e-01 -2.1200000e-01
  8.9000000e-01 -8.0000000e-02 -4.1000000e-01  1.8000000e-01
  2.5000000e-01 -9.0000000e-01 -6.2000000e-01  5.8000000e-01
 -2.8300000e-01  5.0000000e-01  9.8000000e-01 -8.0000000e-02
  2.8000000e-01 -7.2000000e-01 -7.3000000e-01 -3.7000000e-01
  6.6000000e-01  7.0000000e-01 -2.6000000e-01 -1.8000000e-01
  2.3000000e-01  1.1780000e+00 -8.4000000e-01  6.2000000e-01
  9.7000000e-01  6.5000000e-01  6.3000000e-01 -2.1000000e-01
  1.2990000e+00 -7.7000000e-01 -1.8300000e-01  2.6000000e-01
 -1.8000000e-01  1.3000000e-01 -3.3200000e-01 -4.7000000e-01
  7.8000000e-01 -5.5000000e-01  7.1000000e-01 -1.5000000e-01
  3.0000000e-01  8.9100000e-01  7.1000000e-01 -6.1000000e-01
  9.5000000e-01 -5.3000000e-01  7.7000000e-01  5.0000000e-02
  6.6000000e-01 -6.2800000e-01  4.3000000e-01 -1.3000000e-01
  3.3000000e-01  8.4000000e-01  1.5740000e+00  3.7000000e-01
 -2.1000000e-01  6.4700000e-01 -5.1000000e-01 -4.7000000e-01
 -5.5000000e-01  9.0000000e-01  5.1000000e-01 -1.4910000e+00
  9.7000000e-01 -3.0000000e-02  4.5000000e-01 -6.5000000e-01
  6.8000000e-01  2.1000000e-01 -1.3000000e-01  7.5000000e-01
 -2.8000000e-01 -9.3000000e-01  2.6000000e-01 -8.4000000e-01
  8.8817842e-16 -5.9300000e-01 -8.4000000e-01 -8.8000000e-01
  4.5000000e-01  5.3000000e-01 -2.7000000e-01 -2.9200000e-01
  6.2700000e-01  3.8600000e-01  3.2000000e-01 -2.0000000e-02
  8.0000000e-01 -1.0000000e+00 -6.4000000e-02 -3.2900000e-01
 -7.3000000e-01 -8.0000000e-01 -1.5000000e-01 -8.1000000e-01
  4.0000000e-02 -2.8000000e-01  6.9000000e-01 -4.8000000e-01
  3.0000000e-01  8.2000000e-01  8.8000000e-01 -5.9000000e-01
 -2.0000000e-02  7.2000000e-01 -7.9000000e-01 -7.9000000e-01
  1.1060000e+00  4.9000000e-01  1.7150000e+00  8.0000000e-01
  1.0000000e-02  5.9000000e-01  4.2000000e-01 -1.3000000e-02
  7.5000000e-01 -5.3000000e-01  5.8100000e-01 -8.3000000e-01
  2.1000000e-01 -3.2000000e-01 -2.6000000e-02 -6.4100000e-01
 -6.3000000e-01  5.6000000e-01  1.0600000e-01  9.1000000e-01
 -6.5000000e-01 -4.9000000e-01 -9.7000000e-01  8.8000000e-01
 -4.4000000e-01 -7.4100000e-01  5.0000000e-02 -8.4000000e-01
  4.1000000e-01 -1.3000000e-01  3.4000000e-01  1.0000000e-01
 -2.7000000e-01 -2.0000000e-03 -9.1000000e-01 -3.5000000e-01
 -2.3000000e-01 -4.0000000e-01 -2.7000000e-01 -3.5000000e-01
  5.2000000e-01 -6.1000000e-01  9.2000000e-01  9.6000000e-01
 -1.2400000e-01 -4.0300000e-01  1.1000000e-01  9.0000000e-02
 -4.4000000e-01 -5.2000000e-01  2.8800000e-01 -7.1000000e-01
 -6.8000000e-01  6.1000000e-01 -2.5000000e-01 -3.9700000e-01
  4.4000000e-01  1.2000000e-02  9.6000000e-01 -6.0000000e-01
  5.7000000e-01  7.5000000e-01  6.0000000e-01  3.3500000e-01
 -9.7100000e-01 -2.5000000e-01  3.8000000e-01  1.3000000e-01
  8.9000000e-01 -1.0700000e+00  3.6000000e-01 -2.0000000e-02
 -5.9000000e-01 -3.0000000e-01  6.9200000e-01  4.8000000e-01
  9.3000000e-01  7.1000000e-01  1.5900000e+00  5.2000000e-01
  8.5000000e-01  4.5000000e-01 -5.6900000e-01  8.0000000e-01
  8.5000000e-01 -2.2000000e-01  2.3900000e-01 -5.4000000e-01
  1.8000000e-01 -2.3500000e-01  3.9000000e-01 -3.2700000e-01
 -8.2100000e-01  4.0000000e-01 -1.3000000e-01 -8.8000000e-01
 -3.7000000e-01 -2.7000000e-01 -4.3400000e-01]