[-0.28   0.59  -0.96   0.92  -0.13  -0.86  -0.2    0.29   0.407  0.39
 -0.16  -0.6   -0.2    0.9   -0.44   0.14  -0.16  -0.63  -0.73  -0.43
  0.25   0.39  -0.4    0.462  0.08   0.12  -0.665  0.04  -0.98  -0.72
 -0.01   0.73   1.687 -0.22   0.19  -0.678 -0.313  0.51  -0.95   0.29
  1.395  0.04   0.61  -0.44  -0.55  -0.46   0.217 -0.52   0.73  -0.72
 -0.65  -0.47  -0.51  -0.94  -0.34   0.93   0.19   0.49  -0.6   -0.33
  0.2    0.62  -0.01  -0.6    0.99  -0.27   0.79  -0.17   0.53  -0.93
 -0.38   0.89  -0.58  -0.4    0.44   1.351 -0.56  -0.442  1.143 -0.62
 -0.14  -0.35  -0.526 -0.31   0.47   0.79   0.23  -0.77   0.82   0.16
 -0.74  -0.3   -0.46   0.188 -0.83   0.16   0.679 -0.694  0.64  -0.64
 -0.82   0.73   0.62  -0.69   0.9   -0.52   0.34  -0.18   0.41   0.56
 -0.64  -0.26   0.85  -0.88  -0.62   0.33  -0.85   0.79  -0.69  -0.48
  0.25   0.97  -1.665  1.656  0.11   0.45   0.91   0.72  -0.013  0.328
  0.07  -0.01   0.4   -1.13   0.6   -0.478 -0.02  -0.41  -0.51  -0.4
 -0.01   0.11  -0.15   0.07   0.016  0.48  -0.76   0.307 -0.49   1.465
  0.957  0.24   0.09  -0.46   0.68   0.53   0.8   -0.35   0.33  -0.95
 -0.13   0.72  -0.29   1.002 -0.61   0.18  -0.02   0.02  -0.8   -0.59
  0.44  -0.836 -0.46  -0.44   0.65  -0.73   0.33   0.12   0.36  -0.54
  1.382  0.11   0.45  -0.64  -0.89   0.6    0.6   -0.82  -0.47   0.75
  0.37  -0.88  -0.71  -0.72  -0.24  -0.41  -0.81  -1.06  -0.953 -0.71
 -0.062  0.48   0.98  -0.27   0.91   0.191 -0.59   0.761  1.288 -1.
  0.38  -0.29   0.85  -0.84   0.08  -0.617 -0.5    1.369  0.284 -0.42
  0.23   0.96  -0.47   0.4    0.15  -1.706  0.07  -0.53  -0.81  -1.
  0.35   0.15   0.62  -0.15  -0.45   0.988 -0.47  -0.34  -0.8   -0.16
  0.5    0.99   0.39   0.13  -0.51  -0.9   -0.34   0.557  0.47   0.74
 -0.57   0.71   0.59  -0.04  -0.16   0.12   0.86   0.3   -0.06   0.51
  0.046  0.37  -0.57   0.46  -0.59  -0.12   0.29 ]