[ 4.510e-01  1.690e-01  1.245e+00 -2.000e-03 -2.053e+00  1.446e+00
 -1.526e+00  2.131e+00 -3.560e-01  6.610e-01  9.540e-01 -4.970e-01
 -1.345e+00  1.470e-01  9.420e-01 -3.954e+00  7.770e-01 -4.500e-01
  1.410e-01 -9.100e-01  1.610e-01  2.310e-01 -1.573e+00 -6.300e-01
 -6.900e-01  1.083e+00  1.084e+00  2.646e+00  7.810e-01  5.230e-01
 -5.010e-01  2.860e-01  1.586e+00 -1.655e+00 -9.000e-01  1.764e+00
  2.043e+00  6.130e-01 -3.770e-01  7.400e-02 -4.630e-01  9.490e-01
  1.000e-01 -1.700e+00 -6.170e-01 -9.840e-01  1.500e-01  1.980e+00
  1.269e+00 -1.744e+00 -1.373e+00 -8.160e-01 -2.170e-01 -9.100e-02
 -1.304e+00  4.780e-01 -1.251e+00 -1.153e+00  2.170e-01  1.240e-01
  1.430e-01  2.750e-01 -5.510e-01  3.200e-01  6.700e-01  1.738e+00
 -5.760e-01  1.671e+00 -2.800e-02  8.950e-01 -1.487e+00 -3.680e-01
 -9.900e-01 -5.160e-01  6.280e-01  5.800e-01 -1.010e+00 -5.400e-01
 -5.300e-01  7.050e-01 -8.090e-01 -1.422e+00  5.280e-01 -1.800e-01
 -1.200e-01  1.910e-01 -5.090e-01 -1.727e+00  1.147e+00 -2.245e+00
 -6.280e-01  3.100e-01 -2.270e-01 -6.420e-01  1.094e+00 -5.740e-01
 -1.070e-01 -1.995e+00 -6.500e-02  7.100e-01  6.000e-01 -4.100e-01
  5.270e-01  3.960e-01  1.650e-01  9.150e-01 -1.622e+00 -1.776e+00
 -4.000e-02  1.490e-01 -1.188e+00  1.306e+00 -1.041e+00 -1.635e+00
 -1.830e+00  1.500e-02  4.048e+00  5.350e-01 -2.600e-01  1.062e+00
  6.000e-02  2.109e+00 -1.058e+00 -6.800e-01 -7.740e-01 -4.550e-01
  1.020e-01  6.000e-02  6.900e-01 -3.780e-01  9.340e-01  2.360e-01
 -1.730e+00  1.379e+00 -9.400e-01  1.953e+00  1.400e-01 -1.290e-01
  1.980e-01 -2.700e-02  2.200e-01 -2.014e+00 -6.500e-01  8.000e-02
 -1.180e+00  9.800e-02  7.900e-01 -7.930e-01  4.800e-01 -7.640e-01
  8.400e-01  1.343e+00 -5.360e-01 -5.200e-01  3.000e-01  9.900e-01
 -6.360e-01  7.330e-01 -8.600e-01 -2.992e+00 -1.758e+00  4.760e-01
  7.740e-01 -9.700e-02 -9.700e-01 -8.500e-02  1.398e+00  2.220e-01
  1.677e+00  7.600e-01 -3.780e-01 -8.100e-01  1.920e+00 -8.500e-01
  2.100e-02 -1.193e+00 -9.590e-01 -1.441e+00 -1.860e-01  4.110e-01
  5.800e-01 -8.610e-01 -5.040e-01 -7.680e-01  1.076e+00  4.730e-01
 -2.508e+00 -5.580e-01 -1.101e+00  4.240e-01  1.390e-01 -1.100e+00
 -7.000e-03 -1.841e+00  1.310e-01  7.000e-01 -1.033e+00 -7.530e-01
  9.140e-01  8.000e-02  3.370e-01 -5.380e-01 -1.184e+00  5.200e-01
  8.490e-01 -1.292e+00  8.110e-01 -1.159e+00 -4.920e-01 -1.370e-01
 -2.160e-01  8.660e-01  7.400e-01 -8.450e-01 -7.400e-02  1.579e+00
 -8.160e-01  1.205e+00 -2.148e+00  1.899e+00 -4.270e-01 -3.040e-01
 -1.351e+00  1.747e+00  1.034e+00 -1.940e+00 -2.660e-01  4.190e-01
  3.890e-01 -1.510e-01  1.431e+00  6.540e-01 -1.460e+00  1.477e+00
 -1.486e+00 -5.660e-01  4.370e-01  5.740e-01 -1.623e+00 -2.700e-01
  6.210e-01 -1.077e+00  1.079e+00  5.360e-01  2.140e-01  4.800e-01
 -5.170e-01  7.890e-01 -1.300e+00 -1.059e+00  2.700e-01  6.430e-01
  2.870e-01 -5.100e-01  5.600e-01  1.813e+00  4.030e-01 -4.390e-01
  2.920e-01 -1.809e+00  7.000e-02  4.600e-01 -2.800e-01 -4.180e-01
  9.850e-01 -1.525e+00 -1.058e+00 -1.498e+00  1.050e-01 -1.127e+00
 -1.049e+00  7.080e-01  7.750e-01  5.090e-01  5.790e-01  1.900e-01
  8.900e-01 -1.250e+00  1.455e+00  6.000e-02 -1.344e+00  6.490e-01
  9.800e-01 -7.990e-01  1.118e+00  9.440e-01 -4.800e-01  8.590e-01
  9.600e-01  1.420e-01 -1.447e+00  8.970e-01  1.376e+00  1.100e-01
  8.580e-01  1.694e+00 -5.410e-01  8.000e-02 -1.062e+00  1.818e+00
  1.040e-01 -7.100e-01  2.850e-01  7.300e-01 -1.296e+00  1.860e-01
  4.500e-01 -8.840e-01 -2.764e+00  1.130e-01  2.040e-01  1.210e+00
  7.310e-01  7.230e-01 -9.890e-01 -6.900e-01  1.100e-01  2.650e-01
  8.550e-01  3.300e-01  1.100e-01  1.476e+00 -8.040e-01  1.578e+00
 -5.500e-01  1.031e+00 -8.650e-01 -2.360e-01  7.300e-01  1.479e+00
  3.610e-01 -7.330e-01  2.100e-02 -9.900e-01  5.500e-01 -1.000e-02
  7.150e-01  4.980e-01 -2.570e-01 -7.830e-01 -7.020e-01  8.990e-01
 -4.950e-01 -2.330e-01  1.096e+00  6.200e-01 -1.444e+00  4.800e-01
 -1.779e+00 -1.677e+00  2.450e-01 -1.475e+00  1.129e+00  1.000e-02
 -5.440e-01  4.000e-01  4.760e-01 -9.450e-01 -1.119e+00  1.434e+00
 -6.130e-01 -6.940e-01  1.790e-01 -1.244e+00 -1.358e+00 -5.400e-01
 -9.730e-01 -6.950e-01  5.910e-01 -4.700e-02  2.800e-02  2.530e-01
 -8.220e-01 -8.340e-01  7.000e-02 -1.568e+00  3.540e-01  7.000e-02
  3.580e-01  2.600e-02 -6.640e-01  1.192e+00  3.520e-01  8.970e-01
  1.338e+00 -1.500e-02  9.360e-01  6.550e-01 -6.290e-01  2.062e+00
  1.440e-01 -1.013e+00  1.253e+00  6.320e-01 -1.770e-01 -2.250e-01
  1.446e+00 -1.000e-03 -7.400e-01 -1.790e-01  2.380e-01  9.010e-01
 -6.690e-01  8.950e-01 -8.380e-01 -1.010e+00  1.803e+00  1.000e-01
 -1.668e+00  9.500e-01  4.920e-01]